digraph Tree {
node [shape=box] ;
0 [label="X[1] <= 390.5\nentropy = 0.64\nsamples = 1651\nvalue = [1383, 268]"] ;
1 [label="X[1243] <= 0.5\nentropy = 0.386\nsamples = 1456\nvalue = [1346, 110]"] ;
0 -> 1 [labeldistance=2.5, labelangle=45, headlabel="True"] ;
2 [label="X[351] <= 0.5\nentropy = 0.27\nsamples = 1407\nvalue = [1342, 65]"] ;
1 -> 2 ;
3 [label="X[1229] <= 0.5\nentropy = 0.217\nsamples = 1387\nvalue = [1339, 48]"] ;
2 -> 3 ;
4 [label="X[1483] <= 0.5\nentropy = 0.196\nsamples = 1381\nvalue = [1339, 42]"] ;
3 -> 4 ;
5 [label="X[246] <= 0.5\nentropy = 0.165\nsamples = 1362\nvalue = [1329, 33]"] ;
4 -> 5 ;
6 [label="X[1399] <= 0.5\nentropy = 0.137\nsamples = 1351\nvalue = [1325, 26]"] ;
5 -> 6 ;
7 [label="X[508] <= 0.5\nentropy = 0.116\nsamples = 1346\nvalue = [1325, 21]"] ;
6 -> 7 ;
8 [label="X[418] <= 0.5\nentropy = 0.103\nsamples = 1343\nvalue = [1325, 18]"] ;
7 -> 8 ;
9 [label="X[1081] <= 0.5\nentropy = 0.089\nsamples = 1335\nvalue = [1320, 15]"] ;
8 -> 9 ;
10 [label="X[417] <= 0.5\nentropy = 0.079\nsamples = 1332\nvalue = [1319, 13]"] ;
9 -> 10 ;
11 [label="entropy = 0.069\nsamples = 1327\nvalue = [1316, 11]"] ;
10 -> 11 ;
12 [label="entropy = 0.971\nsamples = 5\nvalue = [3, 2]"] ;
10 -> 12 ;
13 [label="X[1278] <= 0.5\nentropy = 0.918\nsamples = 3\nvalue = [1, 2]"] ;
9 -> 13 ;
14 [label="entropy = 0.0\nsamples = 1\nvalue = [1, 0]"] ;
13 -> 14 ;
15 [label="entropy = 0.0\nsamples = 2\nvalue = [0, 2]"] ;
13 -> 15 ;
16 [label="X[1] <= 135.0\nentropy = 0.954\nsamples = 8\nvalue = [5, 3]"] ;
8 -> 16 ;
17 [label="entropy = 0.0\nsamples = 5\nvalue = [5, 0]"] ;
16 -> 17 ;
18 [label="entropy = 0.0\nsamples = 3\nvalue = [0, 3]"] ;
16 -> 18 ;
19 [label="entropy = 0.0\nsamples = 3\nvalue = [0, 3]"] ;
7 -> 19 ;
20 [label="entropy = 0.0\nsamples = 5\nvalue = [0, 5]"] ;
6 -> 20 ;
21 [label="X[1] <= 144.5\nentropy = 0.946\nsamples = 11\nvalue = [4, 7]"] ;
5 -> 21 ;
22 [label="entropy = 0.0\nsamples = 4\nvalue = [4, 0]"] ;
21 -> 22 ;
23 [label="entropy = 0.0\nsamples = 7\nvalue = [0, 7]"] ;
21 -> 23 ;
24 [label="X[1533] <= 0.5\nentropy = 0.998\nsamples = 19\nvalue = [10, 9]"] ;
4 -> 24 ;
25 [label="X[0] <= 54.0\nentropy = 0.89\nsamples = 13\nvalue = [4, 9]"] ;
24 -> 25 ;
26 [label="X[1428] <= 0.5\nentropy = 0.811\nsamples = 4\nvalue = [3, 1]"] ;
25 -> 26 ;
27 [label="entropy = 0.0\nsamples = 3\nvalue = [3, 0]"] ;
26 -> 27 ;
28 [label="entropy = 0.0\nsamples = 1\nvalue = [0, 1]"] ;
26 -> 28 ;
29 [label="X[789] <= 0.5\nentropy = 0.503\nsamples = 9\nvalue = [1, 8]"] ;
25 -> 29 ;
30 [label="entropy = 0.0\nsamples = 8\nvalue = [0, 8]"] ;
29 -> 30 ;
31 [label="entropy = 0.0\nsamples = 1\nvalue = [1, 0]"] ;
29 -> 31 ;
32 [label="entropy = 0.0\nsamples = 6\nvalue = [6, 0]"] ;
24 -> 32 ;
33 [label="entropy = 0.0\nsamples = 6\nvalue = [0, 6]"] ;
3 -> 33 ;
34 [label="X[1] <= 89.0\nentropy = 0.61\nsamples = 20\nvalue = [3, 17]"] ;
2 -> 34 ;
35 [label="entropy = 0.0\nsamples = 2\nvalue = [2, 0]"] ;
34 -> 35 ;
36 [label="X[0] <= 142.5\nentropy = 0.31\nsamples = 18\nvalue = [1, 17]"] ;
34 -> 36 ;
37 [label="entropy = 0.0\nsamples = 17\nvalue = [0, 17]"] ;
36 -> 37 ;
38 [label="entropy = 0.0\nsamples = 1\nvalue = [1, 0]"] ;
36 -> 38 ;
39 [label="X[570] <= 0.5\nentropy = 0.408\nsamples = 49\nvalue = [4, 45]"] ;
1 -> 39 ;
40 [label="X[1021] <= 0.5\nentropy = 0.254\nsamples = 47\nvalue = [2, 45]"] ;
39 -> 40 ;
41 [label="X[1031] <= 0.5\nentropy = 0.151\nsamples = 46\nvalue = [1, 45]"] ;
40 -> 41 ;
42 [label="entropy = 0.0\nsamples = 42\nvalue = [0, 42]"] ;
41 -> 42 ;
43 [label="X[2] <= 2.333\nentropy = 0.811\nsamples = 4\nvalue = [1, 3]"] ;
41 -> 43 ;
44 [label="entropy = 0.0\nsamples = 1\nvalue = [0, 1]"] ;
43 -> 44 ;
45 [label="X[2] <= 3.583\nentropy = 0.918\nsamples = 3\nvalue = [1, 2]"] ;
43 -> 45 ;
46 [label="entropy = 1.0\nsamples = 2\nvalue = [1, 1]"] ;
45 -> 46 ;
47 [label="entropy = 0.0\nsamples = 1\nvalue = [0, 1]"] ;
45 -> 47 ;
48 [label="entropy = 0.0\nsamples = 1\nvalue = [1, 0]"] ;
40 -> 48 ;
49 [label="entropy = 0.0\nsamples = 2\nvalue = [2, 0]"] ;
39 -> 49 ;
50 [label="X[0] <= 47.0\nentropy = 0.701\nsamples = 195\nvalue = [37, 158]"] ;
0 -> 50 [labeldistance=2.5, labelangle=-45, headlabel="False"] ;
51 [label="X[1] <= 402.0\nentropy = 0.48\nsamples = 29\nvalue = [26, 3]"] ;
50 -> 51 ;
52 [label="X[947] <= 0.5\nentropy = 0.954\nsamples = 8\nvalue = [5, 3]"] ;
51 -> 52 ;
53 [label="X[1454] <= 0.5\nentropy = 0.65\nsamples = 6\nvalue = [5, 1]"] ;
52 -> 53 ;
54 [label="entropy = 0.0\nsamples = 5\nvalue = [5, 0]"] ;
53 -> 54 ;
55 [label="entropy = 0.0\nsamples = 1\nvalue = [0, 1]"] ;
53 -> 55 ;
56 [label="entropy = 0.0\nsamples = 2\nvalue = [0, 2]"] ;
52 -> 56 ;
57 [label="entropy = 0.0\nsamples = 21\nvalue = [21, 0]"] ;
51 -> 57 ;
58 [label="X[2] <= 4.929\nentropy = 0.352\nsamples = 166\nvalue = [11, 155]"] ;
50 -> 58 ;
59 [label="entropy = 0.0\nsamples = 8\nvalue = [8, 0]"] ;
58 -> 59 ;
60 [label="X[0] <= 50.5\nentropy = 0.136\nsamples = 158\nvalue = [3, 155]"] ;
58 -> 60 ;
61 [label="X[1315] <= 0.5\nentropy = 0.811\nsamples = 8\nvalue = [2, 6]"] ;
60 -> 61 ;
62 [label="X[759] <= 0.5\nentropy = 0.592\nsamples = 7\nvalue = [1, 6]"] ;
61 -> 62 ;
63 [label="entropy = 0.0\nsamples = 6\nvalue = [0, 6]"] ;
62 -> 63 ;
64 [label="entropy = 0.0\nsamples = 1\nvalue = [1, 0]"] ;
62 -> 64 ;
65 [label="entropy = 0.0\nsamples = 1\nvalue = [1, 0]"] ;
61 -> 65 ;
66 [label="X[888] <= 0.5\nentropy = 0.058\nsamples = 150\nvalue = [1, 149]"] ;
60 -> 66 ;
67 [label="entropy = 0.0\nsamples = 149\nvalue = [0, 149]"] ;
66 -> 67 ;
68 [label="entropy = 0.0\nsamples = 1\nvalue = [1, 0]"] ;
66 -> 68 ;
}
